digraph Tree {
node [shape=box, fontname="helvetica"] ;
edge [fontname="helvetica"] ;
0 [label="avg_user_sentiment <= -0.064\nsquared_error = 163.42\nsamples = 97\nvalue = 91.66"] ;
1 [label="squared_error = 0.0\nsamples = 1\nvalue = 31.0"] ;
0 -> 1 [labeldistance=2.5, labelangle=45, headlabel="True"] ;
2 [label="Q_0 <= 0.746\nsquared_error = 126.394\nsamples = 96\nvalue = 92.292"] ;
0 -> 2 [labeldistance=2.5, labelangle=-45, headlabel="False"] ;
3 [label="Q_5 <= 0.225\nsquared_error = 64.35\nsamples = 94\nvalue = 93.032"] ;
2 -> 3 ;
4 [label="Q_0 <= 0.192\nsquared_error = 167.028\nsamples = 18\nvalue = 86.5"] ;
3 -> 4 ;
5 [label="Q_6 <= 0.16\nsquared_error = 83.965\nsamples = 16\nvalue = 89.688"] ;
4 -> 5 ;
6 [label="Q_4 <= 0.068\nsquared_error = 51.688\nsamples = 8\nvalue = 95.25"] ;
5 -> 6 ;
7 [label="squared_error = 0.0\nsamples = 1\nvalue = 78.0"] ;
6 -> 7 ;
8 [label="Q_2 <= 0.246\nsquared_error = 10.49\nsamples = 7\nvalue = 97.714"] ;
6 -> 8 ;
9 [label="avg_response_sentiment <= 0.11\nsquared_error = 0.667\nsamples = 6\nvalue = 99.0"] ;
8 -> 9 ;
10 [label="squared_error = 0.0\nsamples = 2\nvalue = 100.0"] ;
9 -> 10 ;
11 [label="response_avg_chars <= 403.283\nsquared_error = 0.25\nsamples = 4\nvalue = 98.5"] ;
9 -> 11 ;
12 [label="squared_error = 0.0\nsamples = 2\nvalue = 99.0"] ;
11 -> 12 ;
13 [label="squared_error = 0.0\nsamples = 2\nvalue = 98.0"] ;
11 -> 13 ;
14 [label="squared_error = 0.0\nsamples = 1\nvalue = 90.0"] ;
8 -> 14 ;
15 [label="Q_0 <= 0.109\nsquared_error = 54.359\nsamples = 8\nvalue = 84.125"] ;
5 -> 15 ;
16 [label="avg_response_sentiment <= 0.117\nsquared_error = 1.0\nsamples = 2\nvalue = 74.0"] ;
15 -> 16 ;
17 [label="squared_error = 0.0\nsamples = 1\nvalue = 73.0"] ;
16 -> 17 ;
18 [label="squared_error = 0.0\nsamples = 1\nvalue = 75.0"] ;
16 -> 18 ;
19 [label="Q_0 <= 0.17\nsquared_error = 26.583\nsamples = 6\nvalue = 87.5"] ;
15 -> 19 ;
20 [label="Q_1 <= 0.048\nsquared_error = 12.688\nsamples = 4\nvalue = 84.75"] ;
19 -> 20 ;
21 [label="squared_error = 0.0\nsamples = 1\nvalue = 90.0"] ;
20 -> 21 ;
22 [label="avg_response_sentiment <= 0.131\nsquared_error = 4.667\nsamples = 3\nvalue = 83.0"] ;
20 -> 22 ;
23 [label="response_avg_chars <= 55.887\nsquared_error = 0.25\nsamples = 2\nvalue = 84.5"] ;
22 -> 23 ;
24 [label="squared_error = 0.0\nsamples = 1\nvalue = 85.0"] ;
23 -> 24 ;
25 [label="squared_error = 0.0\nsamples = 1\nvalue = 84.0"] ;
23 -> 25 ;
26 [label="squared_error = 0.0\nsamples = 1\nvalue = 80.0"] ;
22 -> 26 ;
27 [label="Q_6 <= 0.213\nsquared_error = 9.0\nsamples = 2\nvalue = 93.0"] ;
19 -> 27 ;
28 [label="squared_error = 0.0\nsamples = 1\nvalue = 90.0"] ;
27 -> 28 ;
29 [label="squared_error = 0.0\nsamples = 1\nvalue = 96.0"] ;
27 -> 29 ;
30 [label="Q_1 <= 0.457\nsquared_error = 100.0\nsamples = 2\nvalue = 61.0"] ;
4 -> 30 ;
31 [label="squared_error = 0.0\nsamples = 1\nvalue = 51.0"] ;
30 -> 31 ;
32 [label="squared_error = 0.0\nsamples = 1\nvalue = 71.0"] ;
30 -> 32 ;
33 [label="#error <= 12.5\nsquared_error = 27.533\nsamples = 76\nvalue = 94.579"] ;
3 -> 33 ;
34 [label="Q_8 <= 0.841\nsquared_error = 25.171\nsamples = 74\nvalue = 94.865"] ;
33 -> 34 ;
35 [label="Q_8 <= 0.136\nsquared_error = 22.851\nsamples = 71\nvalue = 95.225"] ;
34 -> 35 ;
36 [label="prompt_avg_chars <= 1.418\nsquared_error = 6.889\nsamples = 3\nvalue = 86.667"] ;
35 -> 36 ;
37 [label="squared_error = 0.0\nsamples = 1\nvalue = 83.0"] ;
36 -> 37 ;
38 [label="avg_user_sentiment <= 0.203\nsquared_error = 0.25\nsamples = 2\nvalue = 88.5"] ;
36 -> 38 ;
39 [label="squared_error = 0.0\nsamples = 1\nvalue = 88.0"] ;
38 -> 39 ;
40 [label="squared_error = 0.0\nsamples = 1\nvalue = 89.0"] ;
38 -> 40 ;
41 [label="#entropy <= 37.5\nsquared_error = 20.181\nsamples = 68\nvalue = 95.603"] ;
35 -> 41 ;
42 [label="#next <= 0.5\nsquared_error = 18.779\nsamples = 67\nvalue = 95.761"] ;
41 -> 42 ;
43 [label="Q_5 <= 0.459\nsquared_error = 19.2\nsamples = 58\nvalue = 95.276"] ;
42 -> 43 ;
44 [label="response_avg_chars <= 19.044\nsquared_error = 11.173\nsamples = 15\nvalue = 97.4"] ;
43 -> 44 ;
45 [label="squared_error = 11.0\nsamples = 4\nvalue = 93.0"] ;
44 -> 45 ;
46 [label="squared_error = 1.636\nsamples = 11\nvalue = 99.0"] ;
44 -> 46 ;
47 [label="response_avg_chars <= 203.796\nsquared_error = 19.877\nsamples = 43\nvalue = 94.535"] ;
43 -> 47 ;
48 [label="squared_error = 17.645\nsamples = 42\nvalue = 94.786"] ;
47 -> 48 ;
49 [label="squared_error = 0.0\nsamples = 1\nvalue = 84.0"] ;
47 -> 49 ;
50 [label="#next <= 5.0\nsquared_error = 4.765\nsamples = 9\nvalue = 98.889"] ;
42 -> 50 ;
51 [label="avg_user_sentiment <= 0.025\nsquared_error = 0.122\nsamples = 7\nvalue = 99.857"] ;
50 -> 51 ;
52 [label="squared_error = 0.0\nsamples = 1\nvalue = 99.0"] ;
51 -> 52 ;
53 [label="squared_error = 0.0\nsamples = 6\nvalue = 100.0"] ;
51 -> 53 ;
54 [label="Q_0 <= 0.222\nsquared_error = 6.25\nsamples = 2\nvalue = 95.5"] ;
50 -> 54 ;
55 [label="squared_error = 0.0\nsamples = 1\nvalue = 98.0"] ;
54 -> 55 ;
56 [label="squared_error = 0.0\nsamples = 1\nvalue = 93.0"] ;
54 -> 56 ;
57 [label="squared_error = 0.0\nsamples = 1\nvalue = 85.0"] ;
41 -> 57 ;
58 [label="Q_0 <= 0.205\nsquared_error = 4.222\nsamples = 3\nvalue = 86.333"] ;
34 -> 58 ;
59 [label="Q_7 <= 0.608\nsquared_error = 1.0\nsamples = 2\nvalue = 85.0"] ;
58 -> 59 ;
60 [label="squared_error = 0.0\nsamples = 1\nvalue = 86.0"] ;
59 -> 60 ;
61 [label="squared_error = 0.0\nsamples = 1\nvalue = 84.0"] ;
59 -> 61 ;
62 [label="squared_error = 0.0\nsamples = 1\nvalue = 89.0"] ;
58 -> 62 ;
63 [label="squared_error = 0.0\nsamples = 2\nvalue = 84.0"] ;
33 -> 63 ;
64 [label="Q_7 <= 0.881\nsquared_error = 1806.25\nsamples = 2\nvalue = 57.5"] ;
2 -> 64 ;
65 [label="squared_error = 0.0\nsamples = 1\nvalue = 15.0"] ;
64 -> 65 ;
66 [label="squared_error = 0.0\nsamples = 1\nvalue = 100.0"] ;
64 -> 66 ;
}
